void setup() {
  int var0var0var0var0var0var0var0var0var0var0 = 0;
int var1var1var1var1var1var1var1var1var1var1 = 1;
int var2var2var2var2var2var2var2var2var2var2 = 2;
int var3var3var3var3var3var3var3var3var3var3 = 3;
int var4var4var4var4var4var4var4var4var4var4 = 4;
int var5var5var5var5var5var5var5var5var5var5 = 5;
int var6var6var6var6var6var6var6var6var6var6 = 6;
int var7var7var7var7var7var7var7var7var7var7 = 7;
int var8var8var8var8var8var8var8var8var8var8 = 8;
int var9var9var9var9var9var9var9var9var9var9 = 9;
int var10var10var10var10var10var10var10var10var10var10 = 10;
int var11var11var11var11var11var11var11var11var11var11 = 11;
int var12var12var12var12var12var12var12var12var12var12 = 12;
int var13var13var13var13var13var13var13var13var13var13 = 13;
int var14var14var14var14var14var14var14var14var14var14 = 14;
int var15var15var15var15var15var15var15var15var15var15 = 15;
int var16var16var16var16var16var16var16var16var16var16 = 16;
int var17var17var17var17var17var17var17var17var17var17 = 17;
int var18var18var18var18var18var18var18var18var18var18 = 18;
int var19var19var19var19var19var19var19var19var19var19 = 19;
int var20var20var20var20var20var20var20var20var20var20 = 20;


}

void loop() {
  // put your main code here, to run repeatedly:

}
